0.301917
0.019889
0.026966
0.042881
-0.308222
0.033650
0.243845
0.033940
0.020315
-0.427791
-0.710347
-0.522495
-0.585971
0.030320
-0.325140
0.161705
0.349124
-0.159589
0.318946
0.005055
0.054554
-0.028616
0.136996
0.079606
0.083120
0.114117
0.348667
-0.038741
0.157018
0.367885
0.079064
0.494900
0.242937
-0.186472
0.168088
0.019515
0.059481
0.076441
0.408140
0.078779
0.199699
-0.145629
0.271647
-0.175265
0.136123
0.212776
0.271472
0.384099
-0.260548
0.136757
-0.236433
0.239381
0.203617
0.137473
0.304697
0.563373
0.155673
0.184087
-0.063229
-0.410984
0.187810
-0.330165
-0.368609
0.099711
0.258202
0.072020
0.092122
0.135912
-0.640521
0.045056
0.056577
0.285366
0.298823
0.021481
0.238210
-0.044366
0.242478
-0.139312
-0.432206
0.006180
0.179179
0.135348
-0.143811
-0.269930
-0.072019
0.357816
0.208841
-0.118343
0.124838
-0.536107
0.661179
0.216661
0.062143
-0.418466
-0.284956
0.475613
-0.481829
0.210009
-1.194264
0.167483
0.206603
0.148975
0.145462
0.081193
0.207234
-0.192687
0.055706
0.047528
0.294743
0.271988
-0.098154
0.016999
0.299347
0.151055
-0.037475
-0.200141
-0.034587
0.225579
-0.823708
0.162272
0.188597
0.033989
-0.133251
0.217751
0.020315
-0.195788
-0.306199
0.090271
0.150543
0.090271
0.142710
0.140168
0.141834
-0.014094
0.120428
0.033009
0.051600
0.224856
-0.232619
-0.086936
0.096244
-0.663710
0.124487
0.413073
0.155310
0.021445
0.009196
0.091669
0.434958
-0.441908
0.242937
-0.233880
-0.379162
0.171108
0.474324
0.167802
0.209552
-0.211482
0.218769
0.089752
0.340953
0.099352
0.239830
0.075071
0.078883
0.295867
-0.346256
-0.204237
0.052900
0.210947
0.050438
-0.206559
0.165305
0.221192
0.057650
0.392857
0.073309
-0.111541
0.240925
-0.043412
0.072980
-0.788906
0.137454
0.362269
0.296456
-0.186721
-0.315478
-0.028749
0.151027
0.181853
0.345557
0.173925
0.032240
0.076619
0.057953
-0.245315
-0.153698
0.003158
0.046669
-0.448169
0.156991
-0.639505
0.434958
-0.405874
0.116001
0.033940
0.219354
-0.521191
0.296262
0.147227
0.098903
0.177258
-0.164041
0.197575
-0.059434
-0.008884
-0.263302
0.126393
0.016999
-0.059800
0.182164
0.071677
-0.033675
-0.766271
-0.203330
0.824994
-0.097122
0.065247
0.145056
0.164468
0.221835
0.235801
0.430949
0.085952
-0.161086
-0.148211
0.035617
0.182165
0.402402
0.013264
-0.081591
-0.224777
0.187984
0.331408
-0.258890
-0.084462
0.069353
0.083419
0.079073
0.070288
0.167715
0.272227
0.543669
0.290009
0.107114
0.173827
0.069110
-0.497000
-0.019204
0.012995
0.089815
-0.290059
0.241055
0.339048
-0.339065
0.367286
0.115055
0.156977
0.079617
0.123941
0.057860
0.013213
0.290501
0.055839
0.188930
0.197389
0.132572
0.171970
0.298525
-0.404136
0.019655
0.317429
0.016452
0.304697
-0.229504
0.374953
0.128409
-0.798550
0.204674
0.008708
0.132427
0.422935
-0.394173
0.056577
-0.021893
0.182276
-0.072233
-0.040843
0.202105
0.122270
-0.665024
-0.202719
0.071711
0.139029
0.089376
0.243845
0.206824
0.099922
-0.356380
-0.154630
-0.117664
0.169475
0.102476
0.017579
0.107536
-0.254193
-0.180293
0.303855
0.406605
0.087237
0.238210
0.120605
-0.124949
0.138280
-0.197320
-0.391462
0.066493
-0.606323
0.177250
0.307262
-0.117657
0.109672
0.045821
0.372954
0.121234
-0.355181
0.346414
-0.052342
0.005055
0.006628
0.135171
0.318518
0.128667
0.076613
0.053949
0.137996
0.223382
0.067346
0.128143
0.219161
0.183764
0.287591
0.032916
0.106209
-0.012550
-0.340739
-0.082794
0.286481
-0.314823
-0.319883
0.111915
0.141253
0.299251
0.141253
0.143302
-0.397191
0.237781
0.168556
0.259287
-0.016638
0.161888
0.394403
0.233011
0.193204
0.024915
-0.497886
0.254509
-0.146156
0.115466
-0.074195
0.153564
-0.269312
0.314918
0.071291
0.102667
-0.093182
0.548119
-0.331935
-0.063953
0.048712
0.071928
0.301758
0.497480
-0.295969
0.139029
0.056815
0.132285
0.116261
-0.137211
0.230883
0.269261
0.070160
0.057953
0.369865
0.131926
0.056727
0.117047
-0.793711
0.134629
0.304269
0.215205
0.154679
0.463435
0.215852
0.102959
0.133049
-0.191583
-0.218488
0.036730
0.172511
0.166586
-0.074962
0.156082
0.118934
0.086574
0.176748
-0.163222
0.418501
0.462866
0.138037
0.198380
0.311023
0.182001
-0.301341
0.028622
0.047492
-0.065927
-0.288287
0.200937
-0.115373
-0.242609
-0.100768
-0.056070
0.357334
-0.237765
0.228332
0.245215
0.144426
0.156982
0.099964
-0.079235
0.036652
-0.616804
0.142521
0.078355
0.245087
0.143824
0.157468
-0.332365
0.216834
-0.139719
0.512345
0.246734
0.072192
-0.427963
0.071009
0.278160
0.377604
0.276336
0.130601
-0.530651
-0.455033
0.240565
0.058955
0.278121
0.148168
0.031375
0.087632
0.145056
0.237955
0.389675
0.266710
0.166189
0.333854
-0.817778
-0.163465
0.298545
-0.064954
0.060177
-0.077385
0.234140
0.057421
0.096818
0.041910
0.005055
-0.148799
0.132632
0.298525
0.111665
-1.003085
-0.206644
-0.049262
0.176793
0.118176
-0.021515
0.071009
0.102587
0.495285
0.064898
0.354843
-0.280844
0.146251
-0.158737
0.026365
0.129887
-0.898462
0.005055
-0.770168
0.121187
-0.247501
-0.094556
0.011258
0.108771
0.109548
0.188968
0.215852
0.302084
-0.101144
-0.965640
-0.559751
-0.566640
0.353872
-0.372672
0.090662
0.083121
0.218769
0.397208
0.063613
0.200585
-0.432206
-0.500091
0.096296
0.103301
0.288020
0.076881
0.376208
0.104702
0.286490
-0.654336
0.386158
0.024964
0.096321
0.278028
0.247134
0.079606
0.081595
-0.120013
0.408140
0.083607
0.105067
-0.260981
0.264692
0.102906
0.242937
-0.635446
0.081937
0.168810
-0.039076
0.199248
0.757059
0.095422
0.057401
-0.035697
-0.445325
0.033940
-0.053377
0.201823
0.236513
0.247105
-0.358171
-0.149728
-0.623219
0.513497
0.182164
0.314615
-0.116592
0.243845
0.574756
0.005579
0.110247
0.131666
0.220827
0.067984
0.106796
-0.645582
0.219696
-0.603123
0.821557
0.336641
0.204674
-0.293591
0.363224
0.030320
0.099454
0.121892
0.076861
0.579332
0.308403
0.327544
0.132632
-0.270471
-0.060587
0.120472
0.533031
0.044538
0.112271
0.064804
0.052900
0.051496
0.207779
-0.416588
0.224198
0.133251
0.233087
0.169859
0.188968
-0.350595
0.625863
0.152371
0.156369
0.100799
0.020315
0.067887
0.130617
-0.281092
0.141253
0.090271
0.161779
0.114547
0.104855
0.169989
0.327493
0.115211
0.132730
0.184721
0.245087
-0.017255
0.168480
0.368825
0.098340
0.155267
0.091058
0.058120
0.172345
0.350850
0.214324
0.088363
0.201836
0.117470
-0.140951
0.038854
-0.570174
0.306255
0.369222
0.065585
0.170274
0.052643
0.141407
-0.199436
0.326469
-0.050812
0.415590
0.175014
0.363224
0.187924
0.108143
0.289784
0.189498
-0.406830
0.110082
-0.096444
0.184549
0.398402
0.083607
0.246340
0.206165
-0.181944
-0.086746
0.380119
0.067984
0.357334
0.045065
0.406605
-0.019205
0.081841
-0.329199
-0.159423
-0.024660
0.270556
0.250392
-1.065001
0.077268
0.043964
0.060796
-0.059898
0.204175
0.111665
0.100692
0.063787
0.264306
0.274111
0.137943
0.362164
0.172790
0.305311
0.270023
-0.175993
0.188930
0.121391
-0.173166
-0.161344
0.056435
0.225657
-0.001510
0.111285
0.067144
0.218913
0.247948
0.043498
-0.451283
-0.438716
0.414865
0.278160
0.047561
-0.311151
0.164039
-0.775810
0.076901
0.087474
-0.221975
0.495285
0.294719
0.049933
-0.071648
0.122712
-0.117395
0.175534
0.218234
0.190186
0.056935
0.050114
0.097529
-0.547328
-0.232188
0.034359
0.110247
0.222042
-0.063430
0.139132
0.252919
0.016999
-0.542868
0.163262
0.030320
-0.283855
0.063084
0.033273
0.064121
-0.348238
0.150041
-0.082086
0.098764
0.051294
0.135249
0.446097
0.037376
0.277337
-0.009739
0.255272
0.173832
0.090271
0.142015
-0.205727
-0.242459
-0.185222
0.122275
-0.321554
0.182164
0.212764
-0.720157
0.359902
-0.087115
0.213610
0.058797
0.363012
0.073543
0.022373
-0.354072
0.420906
0.174614
-0.218577
0.145398
0.088363
0.096296
0.005055
-0.076815
0.016999
-0.786540
0.384085
0.513925
-0.019518
0.128054
-0.038721
0.120551
-0.833753
0.207880
0.306749
-0.223923
0.111665
-0.115989
0.134276
0.220313
-0.272690
-0.176539
-0.001512
0.082071
0.142521
0.354972
0.172615
0.025778
0.079606
0.146301
0.275452
0.013640
-0.241145
0.174056
0.128558
-0.479023
-0.023147
0.165983
-0.033284
-0.169287
0.051240
0.091661
0.159380
0.027347
-0.303664
0.363243
0.307491
-0.178436
0.076954
0.184549
0.087474
-0.038283
0.132632
0.131157
0.304282
0.140143
-0.250902
0.200414
0.130765
0.115466
-0.542868
0.108143
0.046741
0.583601
0.034108
0.111665
0.102476
0.332893
-0.182062
-0.326722
0.264611
0.361672
0.111042
0.116587
0.113996
0.358420
0.119621
0.072020
0.055706
-0.359817
-1.048683
-0.164017
0.303408
0.066658
0.263888
0.104429
0.360916
-0.486717
0.182392
0.200769
0.124309
0.038023
0.124243
0.030026
0.434700
-0.135574
0.066493
0.538945
-0.144848
-0.414690
0.115515
0.023302
0.258536
0.139520
0.098544
0.109920
0.263067
-0.047597
0.200414
0.061743
0.136499
0.434700
0.451118
-0.611308
0.274695
0.161689
0.287616
-0.665247
-0.027433
0.254359
0.060033
0.116586
-0.109355
0.092514
0.197052
0.308147
0.076619
0.100692
0.111417
0.047094
0.077154
-0.066937
-0.475623
-0.513255
-0.007795
0.157408
0.228202
0.206064
0.137454
0.187535
0.289748
0.187573
-0.172177
0.188968
0.007096
0.134439
0.188930
-0.112085
0.013213
-0.063100
-0.084002
-0.199046
-0.024312
-0.048773
0.148754
0.245831
-0.105676
0.013213
0.040709
0.111665
-0.674380
0.433854
0.009968
0.006407
0.398729
0.078883
0.625802
0.022942
-0.556201
0.101019
0.279539
0.310510
0.005055
0.114172
-0.358371
0.217826
0.133251
-0.591870
0.600659
0.156982
0.143568
0.185998
-0.341028
0.154055
0.326326
0.045541
0.221835
0.090627
0.242105
0.503415
0.074518
-0.068716
0.184549
0.182344
0.253642
0.055675
-0.597600
0.094023
-0.064967
0.066888
0.545232
-0.223991
0.301262
-0.923814
-0.070031
0.393090
0.104966
-0.150107
0.125546
-0.354072
0.005055
0.205631
0.033383
-0.009794
0.382688
0.145056
0.124264
-0.177386
0.255272
0.065094
0.137476
0.206098
-1.292167
-0.745475
0.116634
0.303408
0.240951
0.066563
0.335889
0.012368
0.019655
-0.769012
0.268245
-0.141664
0.174726
-0.010688
0.157196
-0.367611
0.158819
0.248289
-0.136999
-0.037630
-0.015321
-0.053241
0.238031
0.363012
0.212776
-0.416202
0.134852
0.068188
0.156656
0.043772
0.184549
0.219230
0.114751
0.019889
0.080490
0.043359
-0.019304
0.030026
0.074518
0.391289
-0.151188
0.228222
0.222304
0.129671
0.044509
0.187573
0.115428
0.020315
0.197253
0.076129
0.165655
-0.155647
-0.041485
0.389263
0.016999
0.487591
-0.249722
-0.086215
0.404233
0.173172
0.072375
0.153564
0.164468
0.217826
-0.345683
-0.314514
-0.255510
0.369222
0.089603
0.033650
0.124446
0.216124
0.230883
-0.009362
-0.438631
0.088704
0.108127
0.078883
0.301212
-0.026362
0.217895
0.007454
-0.139778
0.066142
-0.413763
0.083368
0.066658
0.069110
0.020401
0.096174
-0.248419
0.059448
0.102476
-0.037659
0.120363
0.143568
-0.916992
0.363224
0.111665
0.087239
0.173475
0.158819
-0.197510
0.228817
0.032916
-0.060230
0.135546
-0.271684
0.044538
0.076129
0.164572
0.307478
0.242175
0.177250
-0.007691
0.292446
0.057967
0.189818
0.432462
0.133251
0.482325
0.087254
-0.145793
0.300532
0.220584
0.102365
0.046669
0.073517
0.184097
-0.237053
0.168203
-0.476674
-0.140121
0.107863
0.185042
-0.302748
0.504307
0.201823
-0.411323
0.173415
0.357816
0.193929
-0.245622
-0.222433
0.019889
0.265285
0.005055
0.069265
-0.206178
0.195003
0.161914
0.056577
-0.238999
-0.348936
-0.227036
0.086477
0.120247
0.092122
0.092674
0.247752
0.217895
0.314482
0.254076
0.116634
0.075026
0.023376
-0.061110
0.165086
0.201823
0.095242
0.164572
0.210009
-0.145409
-0.139564
0.217895
0.162329
0.062143
0.076318
0.112055
0.184549
0.071065
0.824994
0.136123
0.273606
0.216929
-2.043923
0.128486
-1.047909
0.208966
0.272961
0.111665
0.018165
0.065014
-0.319147
-0.604551
-0.510571
0.114119
-0.031614
0.044601
0.228332
-0.239565
0.169859
0.070288
-0.212966
-0.208417
0.167047
0.073220
0.102476
0.052900
0.215037
0.166110
-0.071056
0.005055
-0.003740
0.128907
0.029504
0.030026
0.150879
-0.566550
-0.236934
0.021157
0.295972
-0.540270
0.046669
0.135912
-1.110327
-0.294005
-0.488818
-0.253551
0.206720
0.044197
0.248289
-0.350189
0.182018
-0.033842
0.142885
-0.955737
0.312294
0.544398
-0.284559
0.301774
0.335964
0.090271
-0.294193
-0.046393
-0.111556
0.281415
0.191978
0.075716
-0.103311
0.116605
0.072020
0.071166
0.173827
-0.290419
-0.494734
0.211074
-0.749818
-0.127830
0.026096
0.184125
0.193867
0.297795
0.143382
0.395049
-0.670088
0.074518
0.202510
0.429829
0.528424
0.138901
-0.459628
0.105040
0.103813
0.184549
0.265160
0.062143
-0.033694
0.098795
0.261219
0.214948
-0.218321
0.041723
0.185042
0.140065
0.086967
0.398940
0.447391
-0.192990
0.102476
0.390901
-0.023614
-0.041801
-0.774664
0.312004
0.031128
-0.127285
0.170811
0.025344
-0.001168
0.210103
0.080183
0.164082
0.121403
-0.305802
0.140069
0.132275
0.103889
0.221134
0.207234
0.005055
-0.061697
0.032916
-0.139032
0.002349
0.148042
-0.066851
0.214969
0.183233
0.224198
0.075289
0.071780
0.730982
0.046451
0.082333
0.043407
0.243312
0.056577
0.085524
-0.262359
-0.654385
0.026966
0.110247
0.037865
-0.232184
0.132632
0.072229
-0.174354
0.138005
0.242937
0.479825
-0.771853
-0.950120
0.216662
0.270960
0.929658
0.019655
0.132226
0.426943
-0.205134
0.051419
0.184125
0.370565
0.331194
0.420638
-0.120212
0.339048
0.332343
-0.121419
0.360226
0.220443
0.078779
-0.368816
0.062143
0.005055
0.294719
0.074294
0.005055
-0.674268
0.339265
0.241831
0.406605
-0.380641
0.030026
-0.020749
-0.187959
0.103457
-0.117132
0.058506
0.170811
0.197052
0.136123
0.076619
0.332212
0.426943
0.200414
-0.238948
0.022383
-0.179875
0.268462
0.141607
-0.085257
-0.052343
0.271358
-0.869868
0.223774
-0.122803
0.119633
-0.497460
-0.159710
0.021026
0.201071
0.156982
0.233353
0.213613
0.083120
0.025328
-0.075959
0.234926
0.317046
0.065886
0.132275
0.028915
0.005055
0.102061
-0.171800
-0.005110
-0.227333
0.120150
0.179880
0.079065
0.428709
0.136648
0.080344
0.124148
0.167995
0.060033
0.213863
0.125723
0.203376
-0.236565
0.427914
-0.154846
0.052900
0.230009
-0.585681
0.207234
0.106700
-0.323399
0.229288
0.392630
-0.103484
0.075475
0.240925
0.021392
0.067144
-0.040685
-0.028204
0.012859
0.116021
0.175014
0.104429
0.096306
-0.105155
-0.011174
-0.233373
0.363243
-0.408722
0.078925
0.231021
0.156718
0.101629
0.049933
0.153447
0.426943
0.131230
-0.267514
0.188968
-0.397412
0.503065
0.240951
0.229026
0.124138
-0.312634
0.177258
0.461117
0.285847
-0.518336
0.088443
0.252892
0.164969
-0.457070
0.298525
0.069762
-0.542868
0.223052
0.113031
0.071065
0.134055
0.396013
-0.530312
0.055919
0.166916
-0.114900
-0.670088
-0.900435
0.087254
0.560642
0.005055
-0.137085
0.153191
-0.687156
0.121887
0.300532
0.390819
0.203752
-0.001587
0.071677
-0.811083
0.245523
-0.119269
0.031375
0.164969
0.153648
0.122270
-0.115201
0.296491
0.082684
0.242937
0.119104
0.308139
0.102935
0.254514
0.056516
-0.076550
0.428516
0.149125
0.112579
-0.126514
0.145658
0.348667
0.273098
-0.041219
0.482947
0.093639
-0.170759
0.150859
0.071065
0.137897
0.039935
0.262299
-0.092858
-0.024253
0.326943
0.204844
-0.244284
0.150543
0.107353
0.085947
0.174190
0.214339
-0.607796
0.049933
0.430949
0.013213
-0.231937
0.158819
0.295120
-1.041368
0.155222
0.161569
0.111082
0.179609
0.142692
-0.067996
0.013213
-0.027678
-0.226563
0.352641
0.209915
-0.139755
0.058120
0.327572
0.326305
0.299251
0.155204
-0.173906
-0.297039
0.314750
0.235593
0.382677
0.614807
0.168309
0.109550
0.104379
0.199910
0.179880
-0.078746
0.325127
-0.184823
0.308468
0.074518
0.250595
0.030746
0.045248
0.043873
0.104429
0.378425
0.290501
0.102587
0.005055
0.155971
0.048419
-0.281953
0.145395
0.025778
-0.366967
0.240744
0.152371
0.100857
0.022313
0.196991
0.046449
-0.202126
-0.488533
0.092994
0.381408
0.263924
0.566362
-0.377514
0.093780
-0.594463
0.067011
0.131764
0.150087
0.312370
-0.004498
0.505760
-0.276632
-0.120306
0.231094
0.197389
-0.015211
-0.753407
0.278028
0.300532
-0.051132
0.268249
0.184799
0.145092
0.328446
0.049453
0.053402
0.119544
0.076797
0.030977
0.096296
0.211370
0.054780
-0.184819
0.231021
0.121784
-0.063049
-0.465831
0.156982
0.105490
-0.233262
0.068172
0.701300
0.288890
0.000060
-0.304067
-0.003016
0.114600
0.146165
0.339048
0.326920
0.067887
0.305212
0.003001
0.227498
0.230009
0.658158
0.165850
-0.433920
0.277337
-0.266854
0.164039
0.292907
0.148795
0.020315
0.095242
-0.117031
-0.096732
0.362359
0.092122
0.205743
0.079617
0.530329
0.236513
0.574665
-1.568707
-0.373834
0.021729
-0.206623
0.231962
0.030320
0.072020
-0.339818
0.242937
-0.187299
0.017868
0.036730
0.148137
-0.201296
0.300532
0.150390
0.307099
0.337866
0.149551
-0.235936
-0.021279
0.367885
-1.287019
-0.031706
0.248790
0.245106
0.127775
0.131488
0.184549
0.401273
-0.122610
0.160096
0.218982
0.497568
0.293824
-0.593207
0.005055
0.135254
-0.631232
0.233087
0.133522
0.213682
0.120605
0.196980
0.012066
0.055706
0.136996
0.345352
0.067984
-0.196122
0.411442
-0.163634
0.292907
0.349687
0.426943
-0.142719
0.171690
0.197796
0.111665
0.155314
0.242911
0.252725
0.477527
-0.152040
0.156183
-0.542868
0.091353
0.155748
0.254119
0.111665
0.053400
0.080891
0.074024
0.576548
0.111665
-0.268357
0.288716
-0.287896
0.362895
0.360916
0.205213
0.102476
0.421521
0.046669
0.005055
0.039959
0.082326
0.336966
0.020315
0.005055
0.277337
0.060894
-0.128562
0.327544
0.067984
0.049933
0.156288
0.081937
-0.138504
0.086873
0.104836
-0.301016
-0.226432
-0.117525
0.019655
-0.246378
-0.077269
0.163307
0.141908
0.076901
0.211384
0.112579
-1.074312
0.080519
0.270960
0.362269
0.019889
-0.332661
0.202458
0.075716
-0.151016
0.014239
0.395049
0.254420
0.102476
0.188112
0.253834
-0.592023
0.187573
-0.016057
0.071009
-0.168828
0.095121
0.242207
0.246731
0.196694
0.190090
0.057763
-0.035514
-0.408638
0.080746
0.189257
0.148137
0.057953
0.060033
0.597699
-0.284876
0.116634
0.036875
0.025778
-0.289967
0.119097
0.109169
0.059481
0.247027
-0.416236
0.097587
0.043471
0.079387
0.106953
0.234640
-1.680891
0.120472
0.134230
0.149489
0.052900
-0.344452
-0.173269
-0.010989
0.205981
0.222920
-0.162326
0.031226
0.389263
0.145348
0.146378
0.597748
-0.616167
-0.183940
0.123035
0.058120
0.384686
0.084553
-0.099420
0.016629
0.123891
0.160556
0.478036
0.133522
0.361175
0.320659
-0.000409
-0.153328
0.016840
0.296982
0.071009
-1.013207
0.120724
-0.166134
0.085946
-0.063748
0.115135
-0.212219
-0.331754
-0.180427
0.089675
-0.469425
0.037718
0.036916
0.019655
-0.069081
0.210576
0.066142
-0.448585
0.164468
0.234769
-0.874529
0.216055
0.189799
0.136565
-0.043014
-0.016694
-0.126273
0.056445
-0.761536
-0.102693
0.526318
0.143278
0.066902
0.136648
0.964094
-0.076615
-0.253295
0.225696
0.136330
0.052900
0.283722
-0.028570
-0.055487
0.070615
0.057401
0.131374
0.173522
0.085946
0.239944
-0.151265
-0.519239
-0.147324
0.461207
0.159441
0.020315
0.009194
0.068927
-0.181938
0.310076
-0.138852
-0.141405
0.233721
0.185998
0.168442
0.273371
0.188013
0.131477
0.197055
0.156481
0.552067
0.059779
0.071728
0.016999
0.115478
0.383926
0.155310
-0.071317
0.397208
0.100692
0.171887
0.168665
0.092223
0.411442
0.171043
0.043498
0.098993
-0.196557
-0.070590
0.322169
0.103888
0.338951
0.089434
0.183597
0.236427
0.098217
0.299251
-0.277843
0.246734
0.113056
0.085821
0.048419
0.321725
-0.284942
0.201823
0.076797
-0.334832
0.128443
0.300532
-0.098595
-0.484811
0.218769
0.276650
-0.101924
0.163283
0.051273
-0.649089
-0.510495
0.229615
0.153564
0.036652
0.233883
0.042743
0.013213
-0.050195
0.096895
0.277837
0.361672
0.025778
0.228817
0.074229
-0.213879
0.185783
0.170811
-0.403233
0.019655
0.159545
0.205796
0.384144
0.015353
0.223304
-0.574283
0.005055
0.052284
0.005055
-0.510571
0.328619
0.197389
0.133049
0.205322
0.132632
0.274024
-0.128545
-0.110045
0.237050
-0.282222
0.036730
0.374141
0.187924
0.314918
0.053179
0.185396
-0.548115
-0.324433
0.104121
-0.908189
-0.155350
0.103847
0.831917
-1.060788
0.154679
0.042881
-0.293552
0.072020
-0.059210
-0.072615
0.222447
-0.416511
0.292321
-0.272811
0.147656
0.260275
0.322932
-0.512554
0.103987
0.112971
0.047492
0.634447
0.052900
0.363243
-0.073196
-0.381350
0.359869
0.300783
0.578858
0.504022
0.064736
0.158201
-0.016638
0.367458
-0.007587
0.019122
0.016240
0.253384
-0.072456
0.042795
0.074828
0.145092
0.367286
-0.251514
0.013640
0.126323
-0.059450
0.233746
-0.878277
0.367885
0.211074
0.221016
0.045869
0.205796
0.056445
0.059827
-0.392497
0.061366
-0.927352
-0.047664
0.122635
0.398940
0.023443
0.271495
0.267801
0.121516
0.397008
0.037818
0.092514
0.303160
0.136648
0.079617
0.425476
0.109827
-0.004495
0.294220
0.273098
0.390819
0.511921
-0.094254
-0.208336
-0.156134
0.112579
0.208469
0.212776
0.548892
0.079606
0.005055
0.132632
0.016999
0.342841
0.184125
-0.372225
0.217895
0.378425
0.096818
0.164572
0.092047
0.225282
0.160940
0.201518
0.225283
0.051240
0.263177
-0.478001
0.058470
-0.485807
0.054110
-0.285940
0.085946
-0.049196
0.604642
-0.136303
-0.183018
0.099282
0.232862
0.401273
-0.276402
-0.024227
0.261984
0.031908
-0.470286
0.161888
-0.084421
0.051623
0.099845
0.228332
-0.080715
0.343020
0.019889
0.298525
0.251769
0.014260
0.302084
0.200209
0.392857
0.205981
-0.258648
0.040540
0.036146
0.065909
-0.657260
-0.397208
-0.360716
0.299347
0.170262
0.115097
-0.005592
0.440378
-0.313483
0.132632
-0.107711
0.028915
0.272439
0.058046
0.182164
-0.449181
0.290557
0.170811
0.112114
0.125640
0.215917
0.128994
0.104429
0.120659
-0.096997
-0.734642
0.139285
0.230624
-0.563478
0.182500
-0.399299
-0.532434
0.039025
-0.525180
-0.543995
0.122339
0.184125
-0.039743
0.157326
-0.101123
0.236696
0.087184
0.370983
0.625802
-0.972909
-0.107524
-0.432206
0.074341
-0.488505
-0.152303
0.093475
0.152679
0.080746
0.136757
0.303408
0.257832
0.186003
0.354972
0.263067
0.256673
0.223090
0.929658
-0.116564
0.168759
-0.202052
0.007492
-0.798939
0.196814
0.474324
0.188930
0.278160
0.049489
0.129552
-0.517155
-0.612072
0.304443
0.088438
-0.057335
0.113852
0.343576
0.142885
0.233172
-0.285120
0.350087
0.110904
0.197389
0.121900
0.252507
0.176006
0.170811
0.005055
0.258158
0.065014
0.142710
0.076364
0.147396
0.005055
0.263067
0.044344
0.083419
0.119149
-0.507695
0.290501
0.168665
-0.226656
0.210690
0.137934
0.168203
0.390416
0.219161
-0.146567
0.641831
0.005055
0.073477
0.145885
0.242105
0.379029
0.153101
0.166983
-0.015673
0.303252
0.187677
0.222322
-0.177791
0.756727
0.102587
0.386158
-0.072337
0.278806
0.193929
0.005055
0.024853
-0.234620
0.224407
0.168203
0.010940
-0.116646
0.107323
0.059755
0.301917
-0.050427
-0.264912
0.123864
0.102025
0.025778
0.124737
0.091691
0.067887
0.093994
0.055684
0.005055
0.080233
0.269542
0.195872
0.309964
-0.692560
-0.209291
0.076129
0.188067
0.082743
0.232155
0.087474
-0.094890
0.079093
0.207779
0.149912
0.185042
-0.132862
0.182392
0.595085
0.354577
0.338965
-0.073754
0.005055
0.205743
0.392857
0.016999
-0.168774
-0.035536
0.204294
0.138901
0.214948
0.057796
-0.111683
0.200660
-0.073356
0.137454
0.183042
0.237213
0.392630
0.089376
0.289664
-0.378251
0.221036
-0.490234
0.164039
0.076619
0.220261
0.085946
0.167043
0.098217
0.177990
-0.063323
0.005055
0.047982
0.243853
-0.323994
0.114078
0.019889
-0.079779
0.316525
0.086726
0.232743
0.005994
0.203122
0.168632
0.272702
-0.589197
0.005055
0.315465
-0.684008
0.095257
0.215831
0.563373
-0.126192
0.071065
0.277337
0.150543
0.209552
0.059555
0.145186
0.201642
0.358420
0.102587
-0.010406
0.095662
0.182500
0.107233
-0.380813
-0.540317
0.370826
0.031157
0.043132
-0.256584
0.528424
0.139648
-0.029681
0.249129
0.058158
0.019889
0.153513
0.067984
0.245292
0.072707
-0.618364
0.197389
0.120605
0.174956
0.041723
0.195475
0.369222
-0.355436
0.094830
0.075716
0.293705
-0.087966
0.228075
-0.327361
0.102211
0.528424
0.111975
0.038232
0.079606
0.136123
-0.670088
0.412252
0.253384
0.056577
0.507421
0.282750
0.118411
0.539762
0.299251
0.404233
0.512345
0.237088
-0.473269
0.277837
0.132730
0.042070
0.223774
-0.396367
-0.598268
0.021876
0.642876
0.584397
-0.042495
-0.100982
-0.074590
-0.513255
0.799853
0.167349
0.108324
0.203534
0.216929
-0.495371
-0.427514
-0.341722
0.005348
0.125359
0.589939
-0.079622
0.184549
0.145535
-0.058551
-0.177789
-0.248674
0.108771
-0.384822
0.034844
-0.018466
0.059481
-0.595526
-0.088751
0.168203
0.112579
-0.228714
-0.041156
0.227498
-0.016199
0.184549
0.164572
-0.051465
-0.228606
0.077859
0.062889
0.317501
0.078893
0.076429
0.112055
-0.643768
0.174634
0.139132
0.189257
0.143901
-0.314218
0.104429
-0.922161
0.143269
0.140143
0.091986
0.072020
0.090662
0.182164
0.138005
0.227712
0.102587
0.119081
0.071451
0.066658
-0.011466
0.071009
0.238210
0.144811
0.210252
0.327544
0.235629
-0.059224
0.112055
0.390901
-0.587845
-0.216712
0.312665
0.202299
0.239576
0.219230
-0.206029
0.111975
0.123199
0.030909
0.200809
0.057436
-0.342940
0.159015
0.075017
0.025778
-0.021904
0.303408
0.171077
-0.603351
0.075716
0.187764
0.089376
0.092118
0.167755
0.209976
-0.360716
0.298525
0.238860
0.172457
0.135490
0.133250
0.595085
-0.091214
-0.557943
-0.152497
0.367885
-0.101913
0.046194
0.076797
0.174042
-0.471593
-0.304234
-0.535584
0.100965
0.281127
-0.102490
0.327725
0.078779
0.108143
-0.095704
0.105449
0.145056
0.154205
0.217711
0.031375
0.096174
0.566295
0.252002
0.104379
0.068829
0.202059
0.108198
0.160853
-0.227221
0.283722
-0.913109
0.558445
0.109827
-0.838902
0.212776
0.085297
0.528424
0.133251
-0.294369
-0.318444
0.100692
-0.248537
0.072403
0.009309
0.164254
0.005055
0.023897
0.229884
0.320659
0.237088
0.154055
0.242937
0.109883
0.308403
0.682957
0.208966
-0.063842
0.127459
0.160885
0.354972
-0.648170
0.188985
-0.095364
-0.627614
0.076129
-0.085563
-0.438981
-0.272319
0.021392
-0.634465
0.050991
0.164693
0.066493
0.021196
0.187307
0.005055
0.138005
0.069547
0.625863
-0.073428
0.065670
-0.184165
0.080519
-0.363601
0.012308
0.161569
0.307942
0.082465
-0.050487
0.076619
0.051993
-0.408956
0.321072
0.010228
-0.189658
-0.114625
-0.141119
-0.259850
-0.585022
0.005055
-0.336711
0.206217
0.166511
0.173172
0.147326
0.290501
0.076797
-0.273044
0.214948
0.206185
0.152371
0.168203
0.102305
0.062213
-0.233799
0.201315
-0.070012
0.213946
0.237213
0.137476
0.121981
0.161888
0.005055
0.174455
0.007396
0.041723
-0.676863
-0.614152
-0.950022
-0.107989
-0.120505
0.231021
0.281193
0.570970
0.048419
0.083589
0.111920
0.224198
0.289334
0.488616
-0.171751
-0.180921
0.059555
0.333516
0.072660
0.132572
-0.061645
0.072662
0.040893
-0.139970
0.124962
0.072020
-0.324157
0.002291
0.163817
0.039273
0.042506
0.069110
0.012165
0.111665
0.236123
0.221652
0.241831
0.042091
-0.056909
0.284232
0.254359
-0.018013
0.096818
0.172615
0.307610
-0.034755
-0.046672
-0.593207
-0.428504
0.202059
0.929658
0.031375
0.036730
0.207779
0.329385
-0.272107
0.160231
-0.743466
0.146097
0.072357
0.100550
-0.209921
0.163909
0.106450
0.203851
-0.169152
-0.011731
0.114600
0.088363
0.037648
0.010447
-0.120509
0.143568
-0.365162
-0.311918
-0.335495
0.114478
-0.439850
-0.459692
0.255043
0.096902
-0.358371
0.124344
0.095164
0.272683
0.429829
-0.414086
0.123289
0.341223
0.321938
-0.032740
0.504022
-0.154738
0.242249
0.236123
0.019655
-0.162636
0.321920
0.177258
0.042881
0.014624
0.242743
0.066090
0.161948
0.221835
0.100692
0.092122
0.085824
0.067887
0.098217
-0.163297
-0.095086
0.120401
-0.049602
0.307281
0.063940
0.177250
0.158575
0.346410
-0.301789
-0.106779
0.042261
0.111975
-0.618566
0.190364
0.073477
0.148607
0.069110
0.036730
0.307942
-0.124362
0.032916
0.089747
0.066142
-0.124737
-0.022583
-0.335132
0.105780
0.124926
0.102241
0.132632
0.020315
0.167047
0.162469
0.196718
0.098544
0.358420
-0.350386
0.050034
0.255334
-0.041822
0.087708
0.392186
0.138934
0.236123
0.122928
-0.011316
0.151168
-0.524751
0.105218
0.150390
-0.025424
-0.228220
0.016999
0.132215
0.159036
0.145658
0.148137
-0.075586
0.096174
-0.328563
0.080437
-0.225348
-0.131179
0.102587
0.233011
-0.204568
0.005055
0.251597
-0.067260
0.206098
0.341929
0.135473
0.229551
-0.414722
0.009693
0.028915
-0.572238
0.005055
0.159101
-0.072575
0.040709
0.047655
0.233087
0.075716
0.030186
0.113566
0.096296
0.218086
0.036987
0.161569
0.109762
0.141517
0.131213
0.363224
0.073517
0.095662
-0.101896
0.526675
-0.235494
0.202105
-0.111619
0.281498
0.066493
-0.658083
0.111665
0.064451
-0.163222
0.167047
0.201823
0.228272
0.199699
0.242937
0.104429
-0.092354
0.151027
0.026966
-0.319863
-0.306075
0.131544
0.097529
0.360916
0.193253
0.066888
-0.613832
0.174507
0.487591
0.149125
-0.628614
0.181825
-0.229401
0.169859
0.134499
0.096174
-0.709795
0.150948
0.044298
0.182215
0.096760
0.131764
0.067887
-0.100325
0.104379
0.185790
0.016999
0.033940
0.044197
-0.154834
0.348667
-0.038002
-0.051046
0.112561
0.005055
0.353305
-2.130346
0.513925
0.110994
-0.196970
-0.065604
-0.189021
-0.256253
0.136965
0.217085
0.288716
-0.016946
0.194427
0.824994
0.147392
0.252363
-0.074865
0.092628
0.344518
0.310076
0.370663
0.020315
0.207234
0.027698
0.107106
0.231021
0.404665
-0.122209
0.145371
0.132226
0.196694
-0.050619
0.111572
-0.474236
-0.213966
0.125060
0.019889
0.025778
-0.021507
-0.437715
0.271644
0.135912
0.261878
0.040709
0.513925
0.030026
0.266797
0.178349
0.109169
0.135518
-0.006957
-0.857729
-0.113072
0.152871
-0.188577
0.053313
0.081937
0.007739
0.411447
0.199091
0.016999
0.136996
-0.179361
0.254594
0.461207
0.145391
-0.172874
0.078883
-0.209291
0.161888
0.104579
-0.081556
0.121887
0.406605
0.065014
-0.414627
0.036730
-0.364073
-0.322655
0.116605
0.027999
0.036652
0.250652
0.076954
0.174394
-0.435384
0.137454
0.145609
0.150543
0.147160
0.119139
0.020315
0.109450
0.613587
0.183986
0.298525
0.138661
-0.203999
0.221134
-0.538075
-0.369268
0.505002
0.119318
-0.310425
0.182090
-0.010135
0.218626
0.143568
0.080519
-0.477898
0.024553
-0.172984
0.143486
0.333854
0.216850
-0.537846
0.209275
0.041745
0.157303
0.102587
0.089839
0.203689
-0.335133
-0.236946
0.102476
0.108105
0.071291
-0.117752
0.325604
0.091669
0.392857
0.077400
0.147252
0.153206
0.005055
0.056577
0.120605
0.406726
0.184549
-0.252324
0.029851
0.176981
0.642876
0.195869
0.148607
0.213041
-0.540520
-0.184799
0.306430
0.231021
0.098993
0.205718
0.067144
0.121060
0.124195
0.124451
-0.193371
0.421521
0.045403
0.331710
-0.166009
0.081546
0.139421
0.059561
0.110727
0.133528
0.299818
0.493473
0.260454
-0.213861
0.111881
0.057860
-0.286013
-0.139532
0.232956
0.317816
0.189918
0.005055
0.156170
0.067887
-0.427967
0.110071
0.033143
0.098348
0.122438
0.145658
0.152409
0.010486
0.163283
0.064323
0.178071
0.184549
-0.510402
0.067887
0.071627
0.069353
0.123941
0.168864
-0.066048
0.076619
0.227498
0.055327
0.069110
0.102587
0.214219
0.185036
0.081937
0.177761
0.077400
-0.466816
-0.318283
0.389263
-0.094134
0.824994
0.210622
0.280778
0.127796
0.067887
-0.615555
-0.589940
-0.225292
-0.142002
0.234384
0.682645
0.083836
-0.019353
0.059689
0.011907
0.584397
0.192902
-0.109538
0.130945
0.218340
0.022383
0.055436
0.015411
0.138901
0.114343
0.308894
0.168002
-0.483684
0.096740
0.201823
0.068172
0.067887
0.196859
0.047394
0.150390
-0.052386
0.031375
0.228332
0.333854
-0.008529
0.034844
0.715700
0.098307
0.095728
-0.383734
0.276876
0.112642
0.127720
0.395049
0.135912
0.490327
-0.435913
0.052836
0.060796
0.120270
-0.001477
0.096296
0.429829
0.409075
0.252919
0.241716
0.059689
0.231366
0.077400
0.091669
0.113788
-0.009734
0.097529
0.069282
0.114119
0.083532
-0.349657
0.175225
0.150087
0.161351
0.097956
0.174956
0.143110
0.039273
0.115428
0.073521
0.170811
0.019655
0.019889
-0.503892
0.109466
0.259502
0.194031
-0.049307
0.289412
0.135348
0.421776
0.060796
0.138005
0.059453
0.278806
0.020315
0.430513
0.140143
0.089266
0.043498
0.151655
-0.173528
0.229288
0.206098
0.207514
0.028999
-0.349101
0.044538
0.059555
-0.291320
0.163028
0.085155
0.104379
0.224715
0.104429
0.138005
0.137996
-0.085776
-0.058820
0.182164
0.111114
0.081424
-0.492762
-0.277783
0.284474
0.104429
0.198380
0.136757
0.151655
0.239576
0.115838
0.193085
0.216929
0.048009
0.210252
-0.053842
0.087585
0.523189
0.251568
0.104429
0.178345
0.518602
0.135348
0.026966
0.246025
0.325799
0.201823
0.197389
0.042994
0.221714
0.168665
0.185042
0.043873
0.297795
-0.035665
0.036730
-0.024413
0.393560
0.140143
-0.005670
0.584623
-0.048746
-0.242871
0.317429
0.162314
-0.670088
0.132632
-0.512766
0.105456
0.059816
-0.151598
-0.007138
0.098613
-0.102277
0.017171
0.168203
0.026061
0.296162
0.428813
0.246365
0.135703
0.044538
0.380779
0.299268
-0.131877
0.176341
0.122270
-0.115693
0.140769
0.170274
-0.343738
0.310510
0.005055
0.339048
-0.039699
0.067984
0.048419
-0.023623
0.148607
-1.155179
0.150390
0.023367
-0.405574
-0.139867
0.078095
0.087708
-0.114159
-0.683429
-0.078545
-0.609814
0.151027
0.060894
0.016999
0.185998
-0.426510
0.092248
0.001265
0.584397
0.057166
0.082071
0.169446
-0.086625
0.283757
0.089727
0.194064
0.119410
0.038618
0.066493
-0.588605
-0.104542
0.049933
0.431560
0.098217
0.223774
0.059460
0.161743
0.117157
0.098558
0.038159
0.137996
0.016999
0.025778
-0.099054
-0.096850
0.102305
0.013213
0.059689
0.444877
0.136671
0.406726
0.016081
0.189271
0.066142
-0.020490
0.141179
0.163962
0.057953
-0.124089
0.201823
-0.346110
0.065196
0.300783
0.036652
0.571296
0.064983
0.119716
0.419765
0.164604
0.088601
0.327544
0.141303
0.106796
0.123339
0.147436
0.198254
-0.310557
0.071677
-0.043789
0.108987
-0.197853
0.005055
0.213051
-0.260098
0.028678
0.364587
0.096321
-0.121998
-0.090269
0.167111
0.143173
0.327544
0.236740
0.301774
-0.255352
0.049933
-0.045585
-0.331029
0.154563
-0.698520
0.189796
0.213946
0.033911
-0.145102
-0.142702
0.215096
-0.068348
0.168203
0.145710
0.359011
0.089376
-1.245603
-0.244351
-0.096266
0.075716
0.182105
0.351491
0.088443
0.249129
-0.196450
-0.108449
0.126079
0.096296
-0.475521
0.111665
0.192196
0.281385
0.552067
0.117549
0.363224
0.167262
0.128368
0.217751
-0.035950
0.128367
0.062663
0.172457
0.283757
0.082275
0.056065
-0.113658
0.186483
0.197389
0.206078
0.076129
-0.291496
-0.561042
0.068397
0.136981
-0.123409
0.198372
0.092255
0.231021
0.170486
0.247647
0.246691
0.115135
0.482800
0.063261
0.130887
-0.126566
-0.063063
-0.109838
0.036617
-0.252300
0.005055
0.043873
0.114119
0.185460
0.026966
0.117470
-0.247339
0.088728
0.150073
0.207895
0.064020
0.180095
0.175705
0.642876
-0.339246
0.114600
0.171961
0.293993
-0.318533
0.370663
-0.037679
0.218636
0.259287
0.248001
0.211124
-0.031682
-0.504485
0.048023
0.080746
0.269467
-0.538386
0.072020
0.133010
0.307281
0.209091
-0.538907
-0.776573
0.126404
0.142839
0.231366
0.174561
0.278160
0.076797
0.328619
0.122270
0.251597
0.176300
0.064857
-0.004406
0.186029
0.055706
0.117470
-0.091184
0.357334
0.493940
0.188968
0.122773
-0.496150
-0.302572
0.005055
0.035497
0.353996
-0.173886
0.541309
0.022858
-0.355897
0.005055
0.185345
0.096473
0.164572
0.090208
0.140465
0.111665
0.147396
-0.206372
0.066888
0.164874
0.299251
0.134432
-0.397306
-0.454929
0.418410
0.127260
0.117011
0.391289
0.406344
0.180215
0.067984
0.256929
-0.192579
-0.382563
0.116634
0.133063
0.332666
0.249065
-0.048904
0.707428
0.468233
-0.105535
0.231021
0.115964
0.047863
0.137454
0.278806
0.783678
0.066658
0.283949
